<?xml version="1.0"?>
<opencv_storage>
<cascade>
  <stageType>BOOST</stageType>
  <featureType>HAAR</featureType>
  <height>24</height>
  <width>24</width>
  <stageParams>
    <boostType>GAB</boostType>
    <minHitRate>9.9500000476837158e-01</minHitRate>
    <maxFalseAlarm>5.0000000000000000e-01</maxFalseAlarm>
    <weightTrimRate>9.4999999999999996e-01</weightTrimRate>
    <maxDepth>1</maxDepth>
    <maxWeakCount>100</maxWeakCount></stageParams>
  <featureParams>
    <maxCatCount>0</maxCatCount>
    <featSize>1</featSize>
    <mode>BASIC</mode></featureParams>
  <stageNum>2</stageNum>
  <stages>
    <!-- stage 0 -->
    <_>
      <maxWeakCount>2</maxWeakCount>
      <stageThreshold>8.1419348716735840e-02</stageThreshold>
      <weakClassifiers>
        <_>
          <internalNodes>
            0 -1 1 -3.5809963941574097e-01</internalNodes>
          <leafValues>
            -8.9189189672470093e-01 7.3451328277587891e-01</leafValues></_>
        <_>
          <internalNodes>
            0 -1 0 -7.2765409946441650e-02</internalNodes>
          <leafValues>
            9.7331124544143677e-01 -3.5355967283248901e-01</leafValues></_></weakClassifiers></_>
    <!-- stage 1 -->
    <_>
      <maxWeakCount>2</maxWeakCount>
      <stageThreshold>8.3667439222335815e-01</stageThreshold>
      <weakClassifiers>
        <_>
          <internalNodes>
            0 -1 3 -6.0134381055831909e-02</internalNodes>
          <leafValues>
            5.5038762092590332e-01 -1.</leafValues></_>
        <_>
          <internalNodes>
            0 -1 2 -3.9785131812095642e-02</internalNodes>
          <leafValues>
            -1. 2.8628677129745483e-01</leafValues></_></weakClassifiers></_></stages>
  <features>
    <_>
      <rects>
        <_>
          0 0 10 23 -1.</_>
        <_>
          5 0 5 23 2.</_></rects>
      <tilted>0</tilted></_>
    <_>
      <rects>
        <_>
          0 3 21 20 -1.</_>
        <_>
          0 13 21 10 2.</_></rects>
      <tilted>0</tilted></_>
    <_>
      <rects>
        <_>
          0 18 1 3 -1.</_>
        <_>
          0 19 1 1 2.</_></rects>
      <tilted>0</tilted></_>
    <_>
      <rects>
        <_>
          8 6 3 11 -1.</_>
        <_>
          9 6 1 11 2.</_></rects>
      <tilted>0</tilted></_></features></cascade>
</opencv_storage>
